<?xml version="1.0"?>
<opencv_storage>
<cascade>
  <stageType>BOOST</stageType>
  <featureType>HAAR</featureType>
  <height>19</height>
  <width>19</width>
  <stageParams>
    <boostType>GAB</boostType>
    <minHitRate>9.9500000476837158e-01</minHitRate>
    <maxFalseAlarm>5.0000000000000000e-01</maxFalseAlarm>
    <weightTrimRate>9.4999999999999996e-01</weightTrimRate>
    <maxDepth>1</maxDepth>
    <maxWeakCount>100</maxWeakCount></stageParams>
  <featureParams>
    <maxCatCount>0</maxCatCount>
    <featSize>1</featSize>
    <mode>BASIC</mode></featureParams>
  <stageNum>8</stageNum>
  <stages>
    <!-- stage 0 -->
    <_>
      <maxWeakCount>3</maxWeakCount>
      <stageThreshold>-1.2479342222213745e+00</stageThreshold>
      <weakClassifiers>
        <_>
          <internalNodes>
            0 -1 7 3.3362337946891785e-01</internalNodes>
          <leafValues>
            -8.6935168504714966e-01 7.9875516891479492e-01</leafValues></_>
        <_>
          <internalNodes>
            0 -1 25 1.4200684614479542e-02</internalNodes>
          <leafValues>
            -8.1936609745025635e-01 7.4666655063629150e-01</leafValues></_>
        <_>
          <internalNodes>
            0 -1 13 8.6748480796813965e-02</internalNodes>
          <leafValues>
            -8.6619752645492554e-01 4.4078359007835388e-01</leafValues></_></weakClassifiers></_>
    <!-- stage 1 -->
    <_>
      <maxWeakCount>6</maxWeakCount>
      <stageThreshold>-1.8945209980010986e+00</stageThreshold>
      <weakClassifiers>
        <_>
          <internalNodes>
            0 -1 9 -2.7878758311271667e-01</internalNodes>
          <leafValues>
            5.3897547721862793e-01 -7.0599430799484253e-01</leafValues></_>
        <_>
          <internalNodes>
            0 -1 21 4.6415828168392181e-02</internalNodes>
          <leafValues>
            -7.8795510530471802e-01 4.3888831138610840e-01</leafValues></_>
        <_>
          <internalNodes>
            0 -1 8 9.2229805886745453e-03</internalNodes>
          <leafValues>
            -5.6678140163421631e-01 5.0666642189025879e-01</leafValues></_>
        <_>
          <internalNodes>
            0 -1 3 7.8162103891372681e-03</internalNodes>
          <leafValues>
            -5.2843463420867920e-01 4.8887026309967041e-01</leafValues></_>
        <_>
          <internalNodes>
            0 -1 18 3.1722625717520714e-03</internalNodes>
          <leafValues>
            -6.9074302911758423e-01 3.8356038928031921e-01</leafValues></_>
        <_>
          <internalNodes>
            0 -1 38 -5.0938627682626247e-03</internalNodes>
          <leafValues>
            1.9194541871547699e-01 -8.5876089334487915e-01</leafValues></_></weakClassifiers></_>
    <!-- stage 2 -->
    <_>
      <maxWeakCount>8</maxWeakCount>
      <stageThreshold>-1.8912961483001709e+00</stageThreshold>
      <weakClassifiers>
        <_>
          <internalNodes>
            0 -1 2 -1.4206822030246258e-02</internalNodes>
          <leafValues>
            3.1911110877990723e-01 -7.2479999065399170e-01</leafValues></_>
        <_>
          <internalNodes>
            0 -1 35 -6.8781320005655289e-03</internalNodes>
          <leafValues>
            4.5079642534255981e-01 -6.3577622175216675e-01</leafValues></_>
        <_>
          <internalNodes>
            0 -1 7 3.7364727258682251e-01</internalNodes>
          <leafValues>
            -5.8502840995788574e-01 5.1158714294433594e-01</leafValues></_>
        <_>
          <internalNodes>
            0 -1 26 6.6630337387323380e-03</internalNodes>
          <leafValues>
            -6.1883074045181274e-01 4.1863411664962769e-01</leafValues></_>
        <_>
          <internalNodes>
            0 -1 34 1.1209137737751007e-03</internalNodes>
          <leafValues>
            -6.8157070875167847e-01 3.0230304598808289e-01</leafValues></_>
        <_>
          <internalNodes>
            0 -1 30 -3.7526341620832682e-03</internalNodes>
          <leafValues>
            3.7447643280029297e-01 -5.5752998590469360e-01</leafValues></_>
        <_>
          <internalNodes>
            0 -1 31 9.0799592435359955e-03</internalNodes>
          <leafValues>
            -3.5848763585090637e-01 5.5104547739028931e-01</leafValues></_>
        <_>
          <internalNodes>
            0 -1 19 6.2897265888750553e-04</internalNodes>
          <leafValues>
            -7.6027029752731323e-01 2.5214847922325134e-01</leafValues></_></weakClassifiers></_>
    <!-- stage 3 -->
    <_>
      <maxWeakCount>8</maxWeakCount>
      <stageThreshold>-2.0438017845153809e+00</stageThreshold>
      <weakClassifiers>
        <_>
          <internalNodes>
            0 -1 0 2.9573747888207436e-03</internalNodes>
          <leafValues>
            -6.2688553333282471e-01 5.5361932516098022e-01</leafValues></_>
        <_>
          <internalNodes>
            0 -1 3 5.8728288859128952e-03</internalNodes>
          <leafValues>
            -6.4901083707809448e-01 3.4677189588546753e-01</leafValues></_>
        <_>
          <internalNodes>
            0 -1 20 5.6058414280414581e-02</internalNodes>
          <leafValues>
            -7.1638524532318115e-01 3.2014709711074829e-01</leafValues></_>
        <_>
          <internalNodes>
            0 -1 37 6.1824634671211243e-02</internalNodes>
          <leafValues>
            -8.4554523229598999e-01 3.5898387432098389e-01</leafValues></_>
        <_>
          <internalNodes>
            0 -1 15 -6.7489403299987316e-03</internalNodes>
          <leafValues>
            2.5748163461685181e-01 -7.5973761081695557e-01</leafValues></_>
        <_>
          <internalNodes>
            0 -1 28 -7.7399522997438908e-03</internalNodes>
          <leafValues>
            5.4872846603393555e-01 -4.5801365375518799e-01</leafValues></_>
        <_>
          <internalNodes>
            0 -1 41 -2.5963259395211935e-04</internalNodes>
          <leafValues>
            4.0049633383750916e-01 -5.5922049283981323e-01</leafValues></_>
        <_>
          <internalNodes>
            0 -1 14 2.2126540541648865e-02</internalNodes>
          <leafValues>
            -6.8580830097198486e-01 3.2993543148040771e-01</leafValues></_></weakClassifiers></_>
    <!-- stage 4 -->
    <_>
      <maxWeakCount>8</maxWeakCount>
      <stageThreshold>-1.8741947412490845e+00</stageThreshold>
      <weakClassifiers>
        <_>
          <internalNodes>
            0 -1 6 2.6146072894334793e-02</internalNodes>
          <leafValues>
            -6.8394309282302856e-01 3.3527132868766785e-01</leafValues></_>
        <_>
          <internalNodes>
            0 -1 24 1.1473175138235092e-02</internalNodes>
          <leafValues>
            -6.1690229177474976e-01 4.0077400207519531e-01</leafValues></_>
        <_>
          <internalNodes>
            0 -1 32 7.3826918378472328e-03</internalNodes>
          <leafValues>
            -6.2717050313949585e-01 3.9739254117012024e-01</leafValues></_>
        <_>
          <internalNodes>
            0 -1 11 -2.3604992311447859e-03</internalNodes>
          <leafValues>
            4.4852089881896973e-01 -6.4876693487167358e-01</leafValues></_>
        <_>
          <internalNodes>
            0 -1 40 -1.6030152328312397e-03</internalNodes>
          <leafValues>
            4.4727382063865662e-01 -5.4924654960632324e-01</leafValues></_>
        <_>
          <internalNodes>
            0 -1 3 6.7187407985329628e-03</internalNodes>
          <leafValues>
            -5.7812225818634033e-01 4.4094493985176086e-01</leafValues></_>
        <_>
          <internalNodes>
            0 -1 29 -9.4931252533569932e-04</internalNodes>
          <leafValues>
            4.0618363022804260e-01 -5.8262133598327637e-01</leafValues></_>
        <_>
          <internalNodes>
            0 -1 12 1.6773315146565437e-03</internalNodes>
          <leafValues>
            -6.9890630245208740e-01 3.1654348969459534e-01</leafValues></_></weakClassifiers></_>
    <!-- stage 5 -->
    <_>
      <maxWeakCount>7</maxWeakCount>
      <stageThreshold>-1.0768880844116211e+00</stageThreshold>
      <weakClassifiers>
        <_>
          <internalNodes>
            0 -1 1 2.3845755495131016e-03</internalNodes>
          <leafValues>
            -6.7571264505386353e-01 5.9628480672836304e-01</leafValues></_>
        <_>
          <internalNodes>
            0 -1 8 6.7440648563206196e-03</internalNodes>
          <leafValues>
            -6.4784091711044312e-01 4.6653452515602112e-01</leafValues></_>
        <_>
          <internalNodes>
            0 -1 10 -2.3454945534467697e-02</internalNodes>
          <leafValues>
            8.0633330345153809e-01 -3.8751354813575745e-01</leafValues></_>
        <_>
          <internalNodes>
            0 -1 23 4.2156204581260681e-03</internalNodes>
          <leafValues>
            -6.0120207071304321e-01 4.6746188402175903e-01</leafValues></_>
        <_>
          <internalNodes>
            0 -1 33 5.7999389246106148e-03</internalNodes>
          <leafValues>
            -6.4059901237487793e-01 4.5670825242996216e-01</leafValues></_>
        <_>
          <internalNodes>
            0 -1 16 -3.5192477516829967e-03</internalNodes>
          <leafValues>
            4.7038525342941284e-01 -7.0687335729598999e-01</leafValues></_>
        <_>
          <internalNodes>
            0 -1 27 -4.1837710887193680e-04</internalNodes>
          <leafValues>
            -7.6037633419036865e-01 4.6257477998733521e-01</leafValues></_></weakClassifiers></_>
    <!-- stage 6 -->
    <_>
      <maxWeakCount>4</maxWeakCount>
      <stageThreshold>-1.5010701417922974e+00</stageThreshold>
      <weakClassifiers>
        <_>
          <internalNodes>
            0 -1 39 -2.8843805193901062e-03</internalNodes>
          <leafValues>
            1. -7.2228205204010010e-01</leafValues></_>
        <_>
          <internalNodes>
            0 -1 5 1.0007941164076328e-03</internalNodes>
          <leafValues>
            -5.0418341159820557e-01 1.</leafValues></_>
        <_>
          <internalNodes>
            0 -1 17 7.0927441120147705e-02</internalNodes>
          <leafValues>
            -7.4386841058731079e-01 5.6780225038528442e-01</leafValues></_>
        <_>
          <internalNodes>
            0 -1 36 -2.5622446555644274e-03</internalNodes>
          <leafValues>
            -9.7383201122283936e-01 4.6926373243331909e-01</leafValues></_></weakClassifiers></_>
    <!-- stage 7 -->
    <_>
      <maxWeakCount>2</maxWeakCount>
      <stageThreshold>-1.9133496284484863e-01</stageThreshold>
      <weakClassifiers>
        <_>
          <internalNodes>
            0 -1 22 -1.6349818557500839e-02</internalNodes>
          <leafValues>
            1. -8.9304304122924805e-01</leafValues></_>
        <_>
          <internalNodes>
            0 -1 4 1.0584501549601555e-02</internalNodes>
          <leafValues>
            7.0170807838439941e-01 -9.4988191127777100e-01</leafValues></_></weakClassifiers></_></stages>
  <features>
    <_>
      <rects>
        <_>
          0 0 2 2 -1.</_>
        <_>
          1 0 1 2 2.</_></rects>
      <tilted>0</tilted></_>
    <_>
      <rects>
        <_>
          0 0 2 3 -1.</_>
        <_>
          1 0 1 3 2.</_></rects>
      <tilted>0</tilted></_>
    <_>
      <rects>
        <_>
          0 0 6 4 -1.</_>
        <_>
          0 0 3 2 2.</_>
        <_>
          3 2 3 2 2.</_></rects>
      <tilted>0</tilted></_>
    <_>
      <rects>
        <_>
          0 0 8 1 -1.</_>
        <_>
          4 0 4 1 2.</_></rects>
      <tilted>0</tilted></_>
    <_>
      <rects>
        <_>
          0 6 1 6 -1.</_>
        <_>
          0 8 1 2 3.</_></rects>
      <tilted>0</tilted></_>
    <_>
      <rects>
        <_>
          0 18 4 1 -1.</_>
        <_>
          2 18 2 1 2.</_></rects>
      <tilted>0</tilted></_>
    <_>
      <rects>
        <_>
          1 0 18 3 -1.</_>
        <_>
          1 1 18 1 3.</_></rects>
      <tilted>0</tilted></_>
    <_>
      <rects>
        <_>
          1 3 18 12 -1.</_>
        <_>
          1 7 18 4 3.</_></rects>
      <tilted>0</tilted></_>
    <_>
      <rects>
        <_>
          1 15 6 4 -1.</_>
        <_>
          1 15 3 2 2.</_>
        <_>
          4 17 3 2 2.</_></rects>
      <tilted>0</tilted></_>
    <_>
      <rects>
        <_>
          3 0 14 9 -1.</_>
        <_>
          3 3 14 3 3.</_></rects>
      <tilted>0</tilted></_>
    <_>
      <rects>
        <_>
          3 1 11 2 -1.</_>
        <_>
          3 2 11 1 2.</_></rects>
      <tilted>0</tilted></_>
    <_>
      <rects>
        <_>
          3 3 2 14 -1.</_>
        <_>
          4 3 1 14 2.</_></rects>
      <tilted>0</tilted></_>
    <_>
      <rects>
        <_>
          3 6 3 2 -1.</_>
        <_>
          3 7 3 1 2.</_></rects>
      <tilted>0</tilted></_>
    <_>
      <rects>
        <_>
          4 4 15 9 -1.</_>
        <_>
          4 7 15 3 3.</_></rects>
      <tilted>0</tilted></_>
    <_>
      <rects>
        <_>
          4 6 8 6 -1.</_>
        <_>
          4 8 8 2 3.</_></rects>
      <tilted>0</tilted></_>
    <_>
      <rects>
        <_>
          4 8 2 8 -1.</_>
        <_>
          4 12 2 4 2.</_></rects>
      <tilted>0</tilted></_>
    <_>
      <rects>
        <_>
          4 9 6 3 -1.</_>
        <_>
          6 9 2 3 3.</_></rects>
      <tilted>0</tilted></_>
    <_>
      <rects>
        <_>
          5 1 9 6 -1.</_>
        <_>
          8 1 3 6 3.</_></rects>
      <tilted>0</tilted></_>
    <_>
      <rects>
        <_>
          5 4 1 4 -1.</_>
        <_>
          5 6 1 2 2.</_></rects>
      <tilted>0</tilted></_>
    <_>
      <rects>
        <_>
          5 5 1 2 -1.</_>
        <_>
          5 6 1 1 2.</_></rects>
      <tilted>0</tilted></_>
    <_>
      <rects>
        <_>
          7 1 6 9 -1.</_>
        <_>
          9 1 2 9 3.</_></rects>
      <tilted>0</tilted></_>
    <_>
      <rects>
        <_>
          7 3 6 14 -1.</_>
        <_>
          9 3 2 14 3.</_></rects>
      <tilted>0</tilted></_>
    <_>
      <rects>
        <_>
          7 3 8 3 -1.</_>
        <_>
          11 3 4 3 2.</_></rects>
      <tilted>0</tilted></_>
    <_>
      <rects>
        <_>
          8 2 3 3 -1.</_>
        <_>
          9 2 1 3 3.</_></rects>
      <tilted>0</tilted></_>
    <_>
      <rects>
        <_>
          8 2 3 5 -1.</_>
        <_>
          9 2 1 5 3.</_></rects>
      <tilted>0</tilted></_>
    <_>
      <rects>
        <_>
          8 3 3 9 -1.</_>
        <_>
          9 3 1 9 3.</_></rects>
      <tilted>0</tilted></_>
    <_>
      <rects>
        <_>
          8 4 3 3 -1.</_>
        <_>
          9 4 1 3 3.</_></rects>
      <tilted>0</tilted></_>
    <_>
      <rects>
        <_>
          8 6 3 4 -1.</_>
        <_>
          8 8 3 2 2.</_></rects>
      <tilted>0</tilted></_>
    <_>
      <rects>
        <_>
          9 4 2 8 -1.</_>
        <_>
          10 4 1 8 2.</_></rects>
      <tilted>0</tilted></_>
    <_>
      <rects>
        <_>
          10 9 2 2 -1.</_>
        <_>
          11 9 1 2 2.</_></rects>
      <tilted>0</tilted></_>
    <_>
      <rects>
        <_>
          11 0 8 1 -1.</_>
        <_>
          15 0 4 1 2.</_></rects>
      <tilted>0</tilted></_>
    <_>
      <rects>
        <_>
          11 0 6 3 -1.</_>
        <_>
          11 1 6 1 3.</_></rects>
      <tilted>0</tilted></_>
    <_>
      <rects>
        <_>
          11 5 7 2 -1.</_>
        <_>
          11 6 7 1 2.</_></rects>
      <tilted>0</tilted></_>
    <_>
      <rects>
        <_>
          12 5 5 2 -1.</_>
        <_>
          12 6 5 1 2.</_></rects>
      <tilted>0</tilted></_>
    <_>
      <rects>
        <_>
          12 9 6 2 -1.</_>
        <_>
          15 9 3 2 2.</_></rects>
      <tilted>0</tilted></_>
    <_>
      <rects>
        <_>
          12 15 6 4 -1.</_>
        <_>
          12 15 3 2 2.</_>
        <_>
          15 17 3 2 2.</_></rects>
      <tilted>0</tilted></_>
    <_>
      <rects>
        <_>
          14 0 3 1 -1.</_>
        <_>
          15 0 1 1 3.</_></rects>
      <tilted>0</tilted></_>
    <_>
      <rects>
        <_>
          14 3 4 12 -1.</_>
        <_>
          14 7 4 4 3.</_></rects>
      <tilted>0</tilted></_>
    <_>
      <rects>
        <_>
          14 9 3 6 -1.</_>
        <_>
          14 12 3 3 2.</_></rects>
      <tilted>0</tilted></_>
    <_>
      <rects>
        <_>
          15 0 4 1 -1.</_>
        <_>
          17 0 2 1 2.</_></rects>
      <tilted>0</tilted></_>
    <_>
      <rects>
        <_>
          15 17 4 2 -1.</_>
        <_>
          17 17 2 2 2.</_></rects>
      <tilted>0</tilted></_>
    <_>
      <rects>
        <_>
          16 17 2 2 -1.</_>
        <_>
          16 18 2 1 2.</_></rects>
      <tilted>0</tilted></_></features></cascade>
</opencv_storage>
